// Code generated by Chat-Lab AI-Factory. DO NOT EDIT.
package ai

import "math"

func PredictToxicity(input []float64) []float64 {
	var var0 float64
	if input[968] < 1.0 {
		if input[430] < 1.0 {
			if input[540] < 1.0 {
				if input[517] < 1.0 {
					if input[178] < 1.0 {
						if input[65] < 1.0 {
							if input[73] < 1.0 {
								if input[479] < 1.0 {
									if input[435] < 1.0 {
										if input[473] < 1.0 {
											if input[498] < 1.0 {
												if input[670] < 1.0 {
													var0 = 0.08694696
												} else {
													var0 = 0.017845118
												}
											} else {
												if input[979] < 1.0 {
													var0 = -0.031707317
												} else {
													var0 = 0.080000006
												}
											}
										} else {
											if input[979] < 1.0 {
												if input[819] < 1.0 {
													var0 = -0.062962964
												} else {
													var0 = 0.060000002
												}
											} else {
												var0 = 0.05714286
											}
										}
									} else {
										if input[979] < 1.0 {
											if input[99] < 1.0 {
												if input[780] < 1.0 {
													var0 = -0.013643178
												} else {
													var0 = 0.08579882
												}
											} else {
												if input[944] < 1.0 {
													var0 = 0.090374336
												} else {
													var0 = -0.025
												}
											}
										} else {
											if input[149] < 1.0 {
												if input[980] < 1.0 {
													var0 = 0.08902743
												} else {
													var0 = 0.007692308
												}
											} else {
												var0 = -0.011111111
											}
										}
									}
								} else {
									if input[979] < 1.0 {
										if input[780] < 1.0 {
											if input[950] < 1.0 {
												if input[156] < 1.0 {
													var0 = -0.092307694
												} else {
													var0 = -0.020000001
												}
											} else {
												var0 = 0.011111111
											}
										} else {
											var0 = 0.025
										}
									} else {
										var0 = 0.05555556
									}
								}
							} else {
								if input[979] < 1.0 {
									if input[267] < 1.0 {
										if input[653] < 1.0 {
											if input[780] < 1.0 {
												if input[507] < 1.0 {
													var0 = -0.089393936
												} else {
													var0 = -0.025
												}
											} else {
												var0 = -0.011111111
											}
										} else {
											var0 = 0.0
										}
									} else {
										if input[300] < 1.0 {
											var0 = -0.033333335
										} else {
											var0 = 0.025
										}
									}
								} else {
									var0 = 0.05555556
								}
							}
						} else {
							if input[979] < 1.0 {
								if input[14] < 1.0 {
									if input[799] < 1.0 {
										if input[93] < 1.0 {
											if input[986] < 1.0 {
												if input[99] < 1.0 {
													var0 = -0.089573465
												} else {
													var0 = -0.00909091
												}
											} else {
												var0 = 0.025
											}
										} else {
											var0 = 0.033333335
										}
									} else {
										if input[300] < 1.0 {
											var0 = 0.011111111
										} else {
											var0 = 0.05
										}
									}
								} else {
									if input[452] < 1.0 {
										var0 = 0.060000002
									} else {
										var0 = 0.011111111
									}
								}
							} else {
								var0 = 0.08857143
							}
						}
					} else {
						if input[979] < 1.0 {
							if input[306] < 1.0 {
								if input[99] < 1.0 {
									if input[209] < 1.0 {
										if input[819] < 1.0 {
											if input[542] < 1.0 {
												if input[701] < 1.0 {
													var0 = -0.093220346
												} else {
													var0 = -0.025
												}
											} else {
												var0 = -0.025
											}
										} else {
											var0 = 0.0
										}
									} else {
										var0 = 0.0
									}
								} else {
									if input[345] < 1.0 {
										var0 = 0.00909091
									} else {
										var0 = -0.05
									}
								}
							} else {
								var0 = 0.0
							}
						} else {
							if input[300] < 1.0 {
								var0 = 0.020000001
							} else {
								var0 = 0.06666667
							}
						}
					}
				} else {
					if input[870] < 1.0 {
						if input[979] < 1.0 {
							if input[819] < 1.0 {
								if input[986] < 1.0 {
									if input[67] < 1.0 {
										if input[72] < 1.0 {
											if input[419] < 1.0 {
												if input[814] < 1.0 {
													var0 = -0.08471338
												} else {
													var0 = -0.00909091
												}
											} else {
												var0 = 0.011111111
											}
										} else {
											var0 = 0.00909091
										}
									} else {
										var0 = 0.025
									}
								} else {
									var0 = 0.033333335
								}
							} else {
								var0 = 0.03846154
							}
						} else {
							var0 = 0.046666667
						}
					} else {
						if input[435] < 1.0 {
							if input[77] < 1.0 {
								var0 = 0.014285715
							} else {
								var0 = 0.05555556
							}
						} else {
							var0 = 0.0
						}
					}
				}
			} else {
				if input[979] < 1.0 {
					if input[99] < 1.0 {
						if input[799] < 1.0 {
							if input[780] < 1.0 {
								if input[55] < 1.0 {
									if input[330] < 1.0 {
										if input[157] < 1.0 {
											if input[709] < 1.0 {
												if input[986] < 1.0 {
													var0 = -0.071428575
												} else {
													var0 = 0.014285715
												}
											} else {
												if input[789] < 1.0 {
													var0 = 0.0625
												} else {
													var0 = -0.011111111
												}
											}
										} else {
											var0 = 0.05555556
										}
									} else {
										if input[479] < 1.0 {
											if input[104] < 1.0 {
												var0 = 0.081818186
											} else {
												var0 = 0.011111111
											}
										} else {
											var0 = 0.0
										}
									}
								} else {
									if input[36] < 1.0 {
										var0 = 0.07894737
									} else {
										if input[104] < 1.0 {
											var0 = 0.036842104
										} else {
											var0 = 0.0
										}
									}
								}
							} else {
								if input[517] < 1.0 {
									if input[104] < 1.0 {
										if input[300] < 2.0 {
											if input[485] < 1.0 {
												if input[655] < 1.0 {
													var0 = 0.09325843
												} else {
													var0 = 0.03846154
												}
											} else {
												var0 = 0.0
											}
										} else {
											var0 = 0.0
										}
									} else {
										if input[8] < 1.0 {
											if input[300] < 1.0 {
												var0 = -0.033333335
											} else {
												var0 = 0.00909091
											}
										} else {
											var0 = 0.05
										}
									}
								} else {
									var0 = -0.045454547
								}
							}
						} else {
							if input[73] < 1.0 {
								if input[736] < 1.0 {
									if input[36] < 1.0 {
										if input[138] < 1.0 {
											var0 = 0.08217822
										} else {
											var0 = 0.011111111
										}
									} else {
										if input[742] < 1.0 {
											if input[976] < 1.0 {
												if input[670] < 1.0 {
													var0 = 0.07037037
												} else {
													var0 = 0.014285715
												}
											} else {
												if input[16] < 1.0 {
													var0 = -0.025
												} else {
													var0 = 0.0
												}
											}
										} else {
											var0 = -0.033333335
										}
									}
								} else {
									var0 = -0.05
								}
							} else {
								var0 = -0.05
							}
						}
					} else {
						if input[479] < 1.0 {
							if input[158] < 1.0 {
								if input[924] < 1.0 {
									if input[65] < 1.0 {
										if input[562] < 1.0 {
											if input[971] < 1.0 {
												if input[670] < 2.0 {
													var0 = 0.08742138
												} else {
													var0 = 0.011111111
												}
											} else {
												var0 = 0.0
											}
										} else {
											var0 = -0.025
										}
									} else {
										if input[435] < 1.0 {
											var0 = -0.033333335
										} else {
											var0 = 0.033333335
										}
									}
								} else {
									var0 = -0.033333335
								}
							} else {
								var0 = -0.02727273
							}
						} else {
							var0 = -0.05
						}
					}
				} else {
					if input[740] < 1.0 {
						if input[912] < 1.0 {
							if input[43] < 1.0 {
								if input[355] < 1.0 {
									if input[92] < 1.0 {
										if input[255] < 1.0 {
											if input[404] < 1.0 {
												if input[5] < 1.0 {
													var0 = 0.08539326
												} else {
													var0 = -0.011111111
												}
											} else {
												var0 = -0.025
											}
										} else {
											if input[607] < 1.0 {
												if input[617] < 1.0 {
													var0 = 0.05294118
												} else {
													var0 = 0.0
												}
											} else {
												var0 = -0.00909091
											}
										}
									} else {
										var0 = -0.025
									}
								} else {
									if input[300] < 1.0 {
										var0 = -0.040000003
									} else {
										var0 = 0.05
									}
								}
							} else {
								var0 = -0.020000001
							}
						} else {
							if input[300] < 1.0 {
								if input[36] < 1.0 {
									if input[819] < 1.0 {
										if input[156] < 1.0 {
											if input[800] < 1.0 {
												if input[670] < 1.0 {
													var0 = -0.042857144
												} else {
													var0 = -0.011111111
												}
											} else {
												var0 = 0.0
											}
										} else {
											var0 = 0.020000001
										}
									} else {
										var0 = 0.033333335
									}
								} else {
									var0 = 0.042857144
								}
							} else {
								var0 = 0.07333334
							}
						}
					} else {
						var0 = -0.060000002
					}
				}
			}
		} else {
			if input[288] < 1.0 {
				if input[979] < 1.0 {
					if input[435] < 1.0 {
						if input[540] < 1.0 {
							var0 = 0.05
						} else {
							var0 = -0.045454547
						}
					} else {
						var0 = -0.06666667
					}
				} else {
					if input[670] < 1.0 {
						var0 = 0.06363636
					} else {
						var0 = 0.0
					}
				}
			} else {
				var0 = -0.0998005
			}
		}
	} else {
		if input[812] < 1.0 {
			if input[540] < 1.0 {
				if input[14] < 1.0 {
					if input[141] < 1.0 {
						if input[789] < 1.0 {
							var0 = -0.09970157
						} else {
							var0 = -0.025
						}
					} else {
						var0 = 0.0
					}
				} else {
					var0 = 0.0
				}
			} else {
				if input[36] < 1.0 {
					var0 = 0.0
				} else {
					var0 = -0.020000001
				}
			}
		} else {
			var0 = 0.033333335
		}
	}
	var var1 float64
	if input[968] < 1.0 {
		if input[430] < 1.0 {
			if input[540] < 1.0 {
				if input[517] < 1.0 {
					if input[178] < 1.0 {
						if input[65] < 1.0 {
							if input[73] < 1.0 {
								if input[479] < 1.0 {
									if input[833] < 1.0 {
										if input[156] < 1.0 {
											if input[365] < 1.0 {
												if input[979] < 1.0 {
													var1 = 0.013082112
												} else {
													var1 = 0.08070823
												}
											} else {
												if input[789] < 1.0 {
													var1 = 0.095452
												} else {
													var1 = -0.013008128
												}
											}
										} else {
											if input[473] < 1.0 {
												if input[435] < 1.0 {
													var1 = 0.09054803
												} else {
													var1 = 0.052042075
												}
											} else {
												if input[678] < 1.0 {
													var1 = -0.013040505
												} else {
													var1 = -0.04833707
												}
											}
										}
									} else {
										if input[300] < 1.0 {
											var1 = 0.09530133
										} else {
											if input[36] < 1.0 {
												if input[435] < 1.0 {
													var1 = 0.0063337605
												} else {
													var1 = 0.019407054
												}
											} else {
												var1 = -0.011195512
											}
										}
									}
								} else {
									if input[979] < 1.0 {
										if input[950] < 1.0 {
											if input[156] < 1.0 {
												var1 = -0.08297677
											} else {
												var1 = -0.019268114
											}
										} else {
											var1 = 0.010802657
										}
									} else {
										var1 = 0.0540359
									}
								}
							} else {
								if input[979] < 1.0 {
									if input[267] < 1.0 {
										if input[653] < 1.0 {
											if input[780] < 1.0 {
												var1 = -0.08415296
											} else {
												var1 = -0.010802662
											}
										} else {
											var1 = 0.0
										}
									} else {
										var1 = -0.007437089
									}
								} else {
									var1 = 0.0540359
								}
							}
						} else {
							if input[979] < 1.0 {
								if input[14] < 1.0 {
									if input[799] < 1.0 {
										if input[93] < 1.0 {
											if input[55] < 1.0 {
												if input[20] < 1.0 {
													var1 = -0.085442044
												} else {
													var1 = -0.01370118
												}
											} else {
												var1 = 0.012523236
											}
										} else {
											var1 = 0.03241249
										}
									} else {
										var1 = 0.037486445
									}
								} else {
									if input[452] < 1.0 {
										var1 = 0.05823196
									} else {
										var1 = 0.010802657
									}
								}
							} else {
								var1 = 0.08479866
							}
						}
					} else {
						if input[979] < 1.0 {
							if input[306] < 1.0 {
								if input[99] < 1.0 {
									if input[209] < 1.0 {
										if input[819] < 1.0 {
											var1 = -0.0871191
										} else {
											var1 = 0.0
										}
									} else {
										var1 = 0.0
									}
								} else {
									var1 = -0.01954904
								}
							} else {
								var1 = 0.0
							}
						} else {
							if input[300] < 1.0 {
								var1 = 0.01940118
							} else {
								var1 = 0.06449301
							}
						}
					}
				} else {
					if input[870] < 1.0 {
						if input[979] < 1.0 {
							if input[819] < 1.0 {
								if input[986] < 1.0 {
									if input[72] < 1.0 {
										if input[694] < 1.0 {
											if input[419] < 1.0 {
												if input[814] < 1.0 {
													var1 = -0.0806612
												} else {
													var1 = -0.0088017685
												}
											} else {
												var1 = 0.010802657
											}
										} else {
											var1 = 0.012864095
										}
									} else {
										var1 = 0.0088017685
									}
								} else {
									var1 = 0.032228287
								}
							} else {
								var1 = 0.037139844
							}
						} else {
							var1 = 0.04497382
						}
					} else {
						if input[435] < 1.0 {
							if input[77] < 1.0 {
								var1 = 0.013776018
							} else {
								var1 = 0.0540359
							}
						} else {
							var1 = 0.0
						}
					}
				}
			} else {
				if input[979] < 1.0 {
					if input[99] < 1.0 {
						if input[799] < 1.0 {
							if input[780] < 1.0 {
								if input[55] < 1.0 {
									if input[330] < 1.0 {
										if input[157] < 1.0 {
											if input[709] < 1.0 {
												if input[986] < 1.0 {
													var1 = -0.06795502
												} else {
													var1 = 0.013653685
												}
											} else {
												if input[976] < 1.0 {
													var1 = 0.0608807
												} else {
													var1 = -0.012032983
												}
											}
										} else {
											var1 = 0.053427666
										}
									} else {
										if input[479] < 1.0 {
											if input[104] < 1.0 {
												var1 = 0.07834023
											} else {
												var1 = 0.010802657
											}
										} else {
											var1 = 0.0
										}
									}
								} else {
									if input[36] < 1.0 {
										var1 = 0.07538802
									} else {
										if input[104] < 1.0 {
											var1 = 0.035397463
										} else {
											var1 = 0.0
										}
									}
								}
							} else {
								if input[517] < 1.0 {
									if input[104] < 1.0 {
										if input[300] < 2.0 {
											if input[485] < 1.0 {
												if input[655] < 1.0 {
													var1 = 0.088992834
												} else {
													var1 = 0.037139844
												}
											} else {
												var1 = 0.0
											}
										} else {
											var1 = 0.0
										}
									} else {
										if input[435] < 1.0 {
											var1 = 0.027195388
										} else {
											var1 = -0.007996455
										}
									}
								} else {
									var1 = -0.044022974
								}
							}
						} else {
							if input[36] < 1.0 {
								if input[529] < 1.0 {
									if input[104] < 1.0 {
										if input[284] < 1.0 {
											if input[776] < 1.0 {
												var1 = 0.08392718
											} else {
												var1 = 0.01821314
											}
										} else {
											var1 = 0.00957151
										}
									} else {
										if input[300] < 1.0 {
											var1 = -0.008979436
										} else {
											var1 = 0.05828593
										}
									}
								} else {
									var1 = -0.011932906
								}
							} else {
								if input[452] < 1.0 {
									if input[141] < 1.0 {
										if input[300] < 1.0 {
											if input[156] < 1.0 {
												var1 = 0.0060526137
											} else {
												var1 = -0.009664997
											}
										} else {
											var1 = 0.037145883
										}
									} else {
										var1 = -0.03348584
									}
								} else {
									if input[670] < 1.0 {
										var1 = 0.07113135
									} else {
										var1 = 0.0109329745
									}
								}
							}
						}
					} else {
						if input[158] < 1.0 {
							if input[924] < 1.0 {
								if input[65] < 1.0 {
									if input[300] < 2.0 {
										if input[540] < 3.0 {
											if input[112] < 1.0 {
												if input[178] < 1.0 {
													var1 = 0.08156575
												} else {
													var1 = 0.018155543
												}
											} else {
												var1 = 0.017398944
											}
										} else {
											var1 = 0.015125751
										}
									} else {
										var1 = -0.0014986075
									}
								} else {
									if input[435] < 1.0 {
										var1 = -0.032412495
									} else {
										var1 = 0.03241249
									}
								}
							} else {
								var1 = -0.032412495
							}
						} else {
							var1 = -0.026408136
						}
					}
				} else {
					if input[740] < 1.0 {
						if input[912] < 1.0 {
							if input[43] < 1.0 {
								if input[355] < 1.0 {
									if input[5] < 1.0 {
										if input[255] < 1.0 {
											if input[49] < 1.0 {
												if input[248] < 1.0 {
													var1 = 0.08196468
												} else {
													var1 = 0.008749366
												}
											} else {
												if input[435] < 1.0 {
													var1 = 0.0343466
												} else {
													var1 = -0.0020104037
												}
											}
										} else {
											if input[607] < 1.0 {
												if input[452] < 1.0 {
													var1 = 0.012778573
												} else {
													var1 = 0.06245332
												}
											} else {
												var1 = -0.0088017685
											}
										}
									} else {
										var1 = -0.010802662
									}
								} else {
									if input[435] < 1.0 {
										var1 = -0.011002965
									} else {
										var1 = 0.011225306
									}
								}
							} else {
								var1 = -0.01940119
							}
						} else {
							if input[300] < 1.0 {
								if input[679] < 1.0 {
									if input[819] < 1.0 {
										if input[574] < 1.0 {
											if input[156] < 1.0 {
												if input[670] < 1.0 {
													var1 = -0.04281433
												} else {
													var1 = -0.010802662
												}
											} else {
												var1 = 0.010556157
											}
										} else {
											var1 = 0.03215124
										}
									} else {
										var1 = 0.038959686
									}
								} else {
									var1 = 0.055215456
								}
							} else {
								var1 = 0.07023875
							}
						}
					} else {
						var1 = -0.05823196
					}
				}
			}
		} else {
			if input[288] < 1.0 {
				if input[979] < 1.0 {
					if input[435] < 1.0 {
						if input[540] < 1.0 {
							var1 = 0.048353825
						} else {
							var1 = -0.044022974
						}
					} else {
						var1 = -0.06449301
					}
				} else {
					if input[670] < 1.0 {
						var1 = 0.061651953
					} else {
						var1 = 0.0
					}
				}
			} else {
				var1 = -0.09506041
			}
		}
	} else {
		if input[812] < 1.0 {
			if input[540] < 1.0 {
				if input[14] < 1.0 {
					if input[141] < 1.0 {
						if input[300] < 1.0 {
							if input[435] < 1.0 {
								var1 = -0.09501305
							} else {
								var1 = -0.030608324
							}
						} else {
							var1 = -0.03101543
						}
					} else {
						var1 = 0.0
					}
				} else {
					var1 = 0.0
				}
			} else {
				if input[36] < 1.0 {
					var1 = 0.0
				} else {
					var1 = -0.01940119
				}
			}
		} else {
			var1 = 0.03241249
		}
	}
	var var2 float64
	if input[968] < 1.0 {
		if input[430] < 1.0 {
			if input[517] < 1.0 {
				if input[540] < 1.0 {
					if input[178] < 1.0 {
						if input[65] < 1.0 {
							if input[73] < 1.0 {
								if input[479] < 1.0 {
									if input[36] < 1.0 {
										if input[776] < 1.0 {
											if input[980] < 1.0 {
												if input[473] < 1.0 {
													var2 = 0.07744413
												} else {
													var2 = -0.03952114
												}
											} else {
												if input[979] < 1.0 {
													var2 = -0.061773982
												} else {
													var2 = 0.029372478
												}
											}
										} else {
											if input[979] < 1.0 {
												if input[799] < 1.0 {
													var2 = -0.05338437
												} else {
													var2 = 0.04168037
												}
											} else {
												if input[300] < 1.0 {
													var2 = 0.028430754
												} else {
													var2 = 0.0761195
												}
											}
										}
									} else {
										if input[979] < 1.0 {
											if input[99] < 1.0 {
												if input[780] < 1.0 {
													var2 = -0.017131248
												} else {
													var2 = 0.073954806
												}
											} else {
												var2 = 0.081664376
											}
										} else {
											if input[215] < 1.0 {
												if input[42] < 1.0 {
													var2 = 0.07774194
												} else {
													var2 = -0.015847092
												}
											} else {
												var2 = -0.025287678
											}
										}
									}
								} else {
									if input[979] < 1.0 {
										if input[950] < 1.0 {
											if input[156] < 1.0 {
												var2 = -0.07939969
											} else {
												var2 = -0.018565597
											}
										} else {
											var2 = 0.010503123
										}
									} else {
										var2 = 0.052601963
									}
								}
							} else {
								if input[979] < 1.0 {
									if input[267] < 1.0 {
										if input[653] < 1.0 {
											if input[780] < 1.0 {
												var2 = -0.08050315
											} else {
												var2 = -0.010503116
											}
										} else {
											var2 = 0.0
										}
									} else {
										var2 = -0.007179876
									}
								} else {
									var2 = 0.052601963
								}
							}
						} else {
							if input[979] < 1.0 {
								if input[14] < 1.0 {
									if input[799] < 1.0 {
										if input[93] < 1.0 {
											if input[55] < 1.0 {
												if input[20] < 1.0 {
													var2 = -0.08169917
												} else {
													var2 = -0.013250752
												}
											} else {
												var2 = 0.012173636
											}
										} else {
											var2 = 0.03152663
										}
									} else {
										var2 = 0.036211576
									}
								} else {
									if input[452] < 1.0 {
										var2 = 0.056575518
									} else {
										var2 = 0.010503123
									}
								}
							} else {
								var2 = 0.08145218
							}
						}
					} else {
						if input[979] < 1.0 {
							if input[306] < 1.0 {
								if input[99] < 1.0 {
									if input[209] < 1.0 {
										if input[819] < 1.0 {
											var2 = -0.08334142
										} else {
											var2 = 0.0
										}
									} else {
										var2 = 0.0
									}
								} else {
									var2 = -0.018835343
								}
							} else {
								var2 = 0.0
							}
						} else {
							if input[300] < 1.0 {
								var2 = 0.0188225
							} else {
								var2 = 0.062479563
							}
						}
					}
				} else {
					if input[979] < 1.0 {
						if input[99] < 1.0 {
							if input[780] < 1.0 {
								if input[799] < 1.0 {
									if input[55] < 1.0 {
										if input[330] < 1.0 {
											if input[709] < 1.0 {
												if input[157] < 1.0 {
													var2 = -0.060956504
												} else {
													var2 = 0.05144007
												}
											} else {
												if input[77] < 1.0 {
													var2 = 0.067950405
												} else {
													var2 = 0.008914279
												}
											}
										} else {
											if input[479] < 1.0 {
												var2 = 0.06844882
											} else {
												var2 = 0.0
											}
										}
									} else {
										if input[113] < 1.0 {
											if input[255] < 1.0 {
												if input[392] < 1.0 {
													var2 = 0.07737499
												} else {
													var2 = 0.007708552
												}
											} else {
												var2 = 0.009061831
											}
										} else {
											var2 = 0.007759226
										}
									}
								} else {
									if input[36] < 1.0 {
										if input[574] < 1.0 {
											if input[494] < 1.0 {
												if input[725] < 1.0 {
													var2 = 0.074739546
												} else {
													var2 = 0.023696704
												}
											} else {
												var2 = 0.023562718
											}
										} else {
											var2 = 0.01365983
										}
									} else {
										if input[452] < 1.0 {
											if input[670] < 1.0 {
												if input[678] < 1.0 {
													var2 = 0.0038811055
												} else {
													var2 = 0.03856752
												}
											} else {
												var2 = -0.016711583
											}
										} else {
											if input[670] < 1.0 {
												var2 = 0.06694039
											} else {
												var2 = 0.010629685
											}
										}
									}
								}
							} else {
								if input[104] < 1.0 {
									if input[300] < 2.0 {
										if input[485] < 1.0 {
											var2 = 0.08259128
										} else {
											var2 = 0.0
										}
									} else {
										var2 = 0.0
									}
								} else {
									if input[435] < 1.0 {
										var2 = 0.026333928
									} else {
										var2 = -0.0142145995
									}
								}
							}
						} else {
							if input[158] < 1.0 {
								if input[924] < 1.0 {
									if input[65] < 1.0 {
										if input[540] < 2.0 {
											if input[653] < 1.0 {
												var2 = 0.08204722
											} else {
												var2 = 0.01637143
											}
										} else {
											if input[800] < 1.0 {
												if input[540] < 3.0 {
													var2 = 0.064179055
												} else {
													var2 = 0.0073195025
												}
											} else {
												var2 = -0.0038586364
											}
										}
									} else {
										if input[435] < 1.0 {
											var2 = -0.03152663
										} else {
											var2 = 0.03152663
										}
									}
								} else {
									var2 = -0.03152663
								}
							} else {
								var2 = -0.025576835
							}
						}
					} else {
						if input[740] < 1.0 {
							if input[912] < 1.0 {
								if input[43] < 1.0 {
									if input[355] < 1.0 {
										if input[404] < 1.0 {
											if input[255] < 1.0 {
												if input[5] < 1.0 {
													var2 = 0.076351315
												} else {
													var2 = -0.010503116
												}
											} else {
												if input[607] < 1.0 {
													var2 = 0.03707402
												} else {
													var2 = -0.008522054
												}
											}
										} else {
											var2 = -0.012729469
										}
									} else {
										if input[435] < 1.0 {
											var2 = -0.010697711
										} else {
											var2 = 0.010913613
										}
									}
								} else {
									var2 = -0.018822497
								}
							} else {
								if input[300] < 1.0 {
									if input[679] < 1.0 {
										if input[819] < 1.0 {
											if input[574] < 1.0 {
												if input[435] < 1.0 {
													var2 = -0.039354626
												} else {
													var2 = 0.0008652743
												}
											} else {
												var2 = 0.031275157
											}
										} else {
											var2 = 0.03781561
										}
									} else {
										var2 = 0.053715598
									}
								} else {
									var2 = 0.06742263
								}
							}
						} else {
							var2 = -0.056575518
						}
					}
				}
			} else {
				if input[330] < 1.0 {
					if input[870] < 1.0 {
						if input[979] < 1.0 {
							if input[819] < 1.0 {
								if input[438] < 1.0 {
									if input[415] < 1.0 {
										if input[814] < 1.0 {
											if input[67] < 1.0 {
												if input[986] < 1.0 {
													var2 = -0.07868452
												} else {
													var2 = -0.0017154504
												}
											} else {
												var2 = 0.012611871
											}
										} else {
											var2 = 0.0011021708
										}
									} else {
										var2 = 0.015606453
									}
								} else {
									if input[255] < 1.0 {
										var2 = 0.029794035
									} else {
										var2 = -0.007622909
									}
								}
							} else {
								var2 = 0.02667324
							}
						} else {
							if input[300] < 1.0 {
								var2 = 0.0066515203
							} else {
								var2 = 0.053073585
							}
						}
					} else {
						if input[670] < 1.0 {
							if input[36] < 1.0 {
								if input[789] < 1.0 {
									var2 = 0.031854928
								} else {
									var2 = 0.00056431454
								}
							} else {
								var2 = -0.018908067
							}
						} else {
							var2 = 0.055827867
						}
					}
				} else {
					if input[435] < 1.0 {
						var2 = 0.06423839
					} else {
						var2 = 0.018373704
					}
				}
			}
		} else {
			if input[288] < 1.0 {
				if input[979] < 1.0 {
					if input[435] < 1.0 {
						if input[540] < 1.0 {
							var2 = 0.046799514
						} else {
							var2 = -0.0426637
						}
					} else {
						var2 = -0.062479563
					}
				} else {
					if input[670] < 1.0 {
						var2 = 0.059804082
					} else {
						var2 = 0.0
					}
				}
			} else {
				var2 = -0.090963885
			}
		}
	} else {
		if input[812] < 1.0 {
			if input[540] < 1.0 {
				if input[14] < 1.0 {
					if input[141] < 1.0 {
						if input[300] < 1.0 {
							if input[435] < 1.0 {
								var2 = -0.09091334
							} else {
								var2 = -0.029788781
							}
						} else {
							var2 = -0.030181294
						}
					} else {
						var2 = 0.0
					}
				} else {
					var2 = 0.0
				}
			} else {
				if input[36] < 1.0 {
					var2 = 0.0
				} else {
					var2 = -0.018822497
				}
			}
		} else {
			var2 = 0.03152663
		}
	}
	var var3 float64
	if input[968] < 1.0 {
		if input[430] < 1.0 {
			if input[517] < 1.0 {
				if input[540] < 1.0 {
					if input[435] < 1.0 {
						if input[178] < 1.0 {
							if input[73] < 1.0 {
								if input[65] < 1.0 {
									if input[670] < 1.0 {
										if input[498] < 1.0 {
											if input[479] < 1.0 {
												if input[473] < 1.0 {
													var3 = 0.07600667
												} else {
													var3 = -0.035238843
												}
											} else {
												if input[14] < 1.0 {
													var3 = -0.064357236
												} else {
													var3 = -0.008655592
												}
											}
										} else {
											if input[979] < 1.0 {
												if input[55] < 1.0 {
													var3 = -0.043476373
												} else {
													var3 = 0.05494926
												}
											} else {
												if input[498] < 2.0 {
													var3 = 0.07482813
												} else {
													var3 = 0.020442834
												}
											}
										}
									} else {
										if input[979] < 1.0 {
											if input[780] < 1.0 {
												if input[99] < 1.0 {
													var3 = -0.038187597
												} else {
													var3 = 0.079216875
												}
											} else {
												var3 = 0.08056455
											}
										} else {
											if input[113] < 1.0 {
												if input[392] < 1.0 {
													var3 = 0.069573514
												} else {
													var3 = 0.0149861155
												}
											} else {
												var3 = 0.0034137287
											}
										}
									}
								} else {
									if input[979] < 1.0 {
										if input[986] < 1.0 {
											if input[799] < 1.0 {
												if input[93] < 1.0 {
													var3 = -0.07107832
												} else {
													var3 = 0.030673696
												}
											} else {
												var3 = 0.042701587
											}
										} else {
											var3 = 0.055077255
										}
									} else {
										var3 = 0.072401
									}
								}
							} else {
								if input[964] < 1.0 {
									if input[156] < 1.0 {
										if input[267] < 1.0 {
											var3 = -0.077022985
										} else {
											var3 = -0.026548399
										}
									} else {
										var3 = -0.022718316
									}
								} else {
									var3 = -0.008757121
								}
							}
						} else {
							if input[979] < 1.0 {
								if input[99] < 1.0 {
									if input[209] < 1.0 {
										if input[267] < 1.0 {
											var3 = -0.0775994
										} else {
											var3 = -0.0194361
										}
									} else {
										var3 = 0.0
									}
								} else {
									var3 = 0.010564371
								}
							} else {
								if input[300] < 1.0 {
									var3 = 0.009498713
								} else {
									var3 = 0.050454553
								}
							}
						}
					} else {
						if input[979] < 1.0 {
							if input[99] < 1.0 {
								if input[780] < 1.0 {
									if input[799] < 1.0 {
										if input[55] < 1.0 {
											if input[709] < 1.0 {
												if input[407] < 1.0 {
													var3 = -0.05959743
												} else {
													var3 = 0.029499918
												}
											} else {
												if input[300] < 1.0 {
													var3 = 0.02364805
												} else {
													var3 = 0.06915934
												}
											}
										} else {
											if input[608] < 1.0 {
												if input[964] < 1.0 {
													var3 = 0.074072085
												} else {
													var3 = -0.002502382
												}
											} else {
												var3 = -0.013164408
											}
										}
									} else {
										if input[128] < 1.0 {
											if input[284] < 1.0 {
												if input[1019] < 1.0 {
													var3 = 0.08353051
												} else {
													var3 = 0.018141879
												}
											} else {
												var3 = 0.011882882
											}
										} else {
											var3 = 0.015233477
										}
									}
								} else {
									if input[65] < 1.0 {
										if input[117] < 1.0 {
											if input[300] < 2.0 {
												var3 = 0.08100997
											} else {
												var3 = 0.018408118
											}
										} else {
											var3 = 0.016077789
										}
									} else {
										var3 = -0.026763761
									}
								}
							} else {
								if input[141] < 1.0 {
									if input[608] < 1.0 {
										if input[300] < 2.0 {
											if input[976] < 1.0 {
												var3 = 0.0825766
											} else {
												if input[128] < 1.0 {
													var3 = 0.013371224
												} else {
													var3 = 0.05053779
												}
											}
										} else {
											var3 = 0.023011621
										}
									} else {
										var3 = 0.0071634627
									}
								} else {
									var3 = 0.0010735659
								}
							}
						} else {
							if input[149] < 1.0 {
								if input[432] < 1.0 {
									if input[296] < 1.0 {
										if input[345] < 1.0 {
											if input[77] < 1.0 {
												if input[841] < 1.0 {
													var3 = 0.08285019
												} else {
													var3 = 0.020326115
												}
											} else {
												if input[300] < 1.0 {
													var3 = 0.0016634001
												} else {
													var3 = 0.05378873
												}
											}
										} else {
											var3 = 0.012976328
										}
									} else {
										var3 = 0.0022308652
									}
								} else {
									var3 = -0.0068932003
								}
							} else {
								var3 = -0.014912853
							}
						}
					}
				} else {
					if input[979] < 1.0 {
						if input[99] < 1.0 {
							if input[780] < 1.0 {
								if input[799] < 1.0 {
									if input[55] < 1.0 {
										if input[330] < 1.0 {
											if input[709] < 1.0 {
												if input[157] < 1.0 {
													var3 = -0.05821846
												} else {
													var3 = 0.049577247
												}
											} else {
												if input[77] < 1.0 {
													var3 = 0.065745436
												} else {
													var3 = 0.008668713
												}
											}
										} else {
											if input[479] < 1.0 {
												var3 = 0.06581691
											} else {
												var3 = 0.0
											}
										}
									} else {
										if input[113] < 1.0 {
											if input[255] < 1.0 {
												if input[392] < 1.0 {
													var3 = 0.07424047
												} else {
													var3 = 0.00749696
												}
											} else {
												var3 = 0.008812117
											}
										} else {
											var3 = 0.0075461627
										}
									}
								} else {
									if input[36] < 1.0 {
										if input[104] < 1.0 {
											if input[284] < 1.0 {
												if input[494] < 1.0 {
													var3 = 0.075553715
												} else {
													var3 = 0.007150703
												}
											} else {
												var3 = 0.007872632
											}
										} else {
											if input[300] < 1.0 {
												var3 = -0.010799082
											} else {
												var3 = 0.058304008
											}
										}
									} else {
										if input[452] < 1.0 {
											if input[670] < 1.0 {
												if input[789] < 1.0 {
													var3 = 0.0034522226
												} else {
													var3 = 0.037947062
												}
											} else {
												var3 = -0.016155263
											}
										} else {
											if input[670] < 1.0 {
												var3 = 0.06481349
											} else {
												var3 = 0.01033514
											}
										}
									}
								}
							} else {
								if input[104] < 1.0 {
									if input[300] < 2.0 {
										if input[485] < 1.0 {
											if input[655] < 1.0 {
												var3 = 0.08229603
											} else {
												var3 = 0.0370884
											}
										} else {
											var3 = 0.0
										}
									} else {
										var3 = 0.0
									}
								} else {
									if input[435] < 1.0 {
										var3 = 0.02550557
									} else {
										var3 = -0.013707613
									}
								}
							}
						} else {
							if input[158] < 1.0 {
								if input[924] < 1.0 {
									if input[65] < 1.0 {
										if input[540] < 2.0 {
											if input[653] < 1.0 {
												var3 = 0.07870364
											} else {
												var3 = 0.015891643
											}
										} else {
											if input[800] < 1.0 {
												if input[540] < 3.0 {
													var3 = 0.06176685
												} else {
													var3 = 0.007087748
												}
											} else {
												var3 = -0.0037296421
											}
										}
									} else {
										if input[435] < 1.0 {
											var3 = -0.030673701
										} else {
											var3 = 0.030673696
										}
									}
								} else {
									var3 = -0.030673701
								}
							} else {
								var3 = -0.024776947
							}
						}
					} else {
						if input[740] < 1.0 {
							if input[912] < 1.0 {
								if input[43] < 1.0 {
									if input[355] < 1.0 {
										if input[404] < 1.0 {
											if input[255] < 1.0 {
												if input[5] < 1.0 {
													var3 = 0.07313867
												} else {
													var3 = -0.010212212
												}
											} else {
												if input[607] < 1.0 {
													var3 = 0.035641737
												} else {
													var3 = -0.008251399
												}
											}
										} else {
											var3 = -0.012373683
										}
									} else {
										if input[435] < 1.0 {
											var3 = -0.0104012685
										} else {
											var3 = 0.010610938
										}
									}
								} else {
									var3 = -0.01826307
								}
							} else {
								if input[300] < 1.0 {
									if input[679] < 1.0 {
										if input[574] < 1.0 {
											if input[819] < 1.0 {
												if input[156] < 1.0 {
													var3 = -0.03409854
												} else {
													var3 = 0.010462965
												}
											} else {
												var3 = 0.030277824
											}
										} else {
											var3 = 0.03685852
										}
									} else {
										var3 = 0.05229975
									}
								} else {
									var3 = 0.06484487
								}
							}
						} else {
							var3 = -0.055020005
						}
					}
				}
			} else {
				if input[330] < 1.0 {
					if input[870] < 1.0 {
						if input[979] < 1.0 {
							if input[819] < 1.0 {
								if input[438] < 1.0 {
									if input[415] < 1.0 {
										if input[814] < 1.0 {
											if input[67] < 1.0 {
												if input[760] < 1.0 {
													var3 = -0.07524045
												} else {
													var3 = 0.0065727695
												}
											} else {
												var3 = 0.012259691
											}
										} else {
											var3 = 0.001065436
										}
									} else {
										var3 = 0.015163948
									}
								} else {
									if input[255] < 1.0 {
										var3 = 0.028829757
									} else {
										var3 = -0.0074137608
									}
								}
							} else {
								var3 = 0.025738025
							}
						} else {
							if input[300] < 1.0 {
								var3 = 0.006441212
							} else {
								var3 = 0.051692553
							}
						}
					} else {
						if input[670] < 1.0 {
							if input[36] < 1.0 {
								if input[789] < 1.0 {
									var3 = 0.030813739
								} else {
									var3 = 0.000547397
								}
							} else {
								var3 = -0.018346136
							}
						} else {
							var3 = 0.054297626
						}
					}
				} else {
					if input[435] < 1.0 {
						var3 = 0.062249947
					} else {
						var3 = 0.01782984
					}
				}
			}
		} else {
			if input[288] < 1.0 {
				if input[979] < 1.0 {
					if input[435] < 1.0 {
						if input[540] < 1.0 {
							var3 = 0.045328647
						} else {
							var3 = -0.041370746
						}
					} else {
						var3 = -0.060608532
					}
				} else {
					if input[670] < 1.0 {
						var3 = 0.058078565
					} else {
						var3 = 0.0
					}
				}
			} else {
				var3 = -0.08739143
			}
		}
	} else {
		if input[812] < 1.0 {
			if input[540] < 1.0 {
				if input[14] < 1.0 {
					if input[141] < 1.0 {
						var3 = -0.087250404
					} else {
						var3 = 0.0
					}
				} else {
					var3 = 0.0
				}
			} else {
				if input[36] < 1.0 {
					var3 = 0.0
				} else {
					var3 = -0.01826307
				}
			}
		} else {
			var3 = 0.030673696
		}
	}
	var var4 float64
	if input[968] < 1.0 {
		if input[430] < 1.0 {
			if input[517] < 1.0 {
				if input[540] < 1.0 {
					if input[435] < 1.0 {
						if input[178] < 1.0 {
							if input[73] < 1.0 {
								if input[65] < 1.0 {
									if input[833] < 1.0 {
										if input[156] < 1.0 {
											if input[560] < 1.0 {
												if input[979] < 1.0 {
													var4 = 0.0021452762
												} else {
													var4 = 0.071218766
												}
											} else {
												if input[120] < 1.0 {
													var4 = 0.023043497
												} else {
													var4 = 0.08556053
												}
											}
										} else {
											if input[473] < 1.0 {
												if input[385] < 1.0 {
													var4 = 0.08084347
												} else {
													var4 = -0.044651102
												}
											} else {
												if input[86] < 1.0 {
													var4 = -0.017793681
												} else {
													var4 = -0.040908884
												}
											}
										}
									} else {
										if input[812] < 1.0 {
											if input[300] < 1.0 {
												var4 = 0.08546638
											} else {
												var4 = 0.01180455
											}
										} else {
											var4 = -0.02728403
										}
									}
								} else {
									if input[979] < 1.0 {
										if input[986] < 1.0 {
											if input[799] < 1.0 {
												if input[93] < 1.0 {
													var4 = -0.068273194
												} else {
													var4 = 0.029851804
												}
											} else {
												var4 = 0.041406993
											}
										} else {
											var4 = 0.05359251
										}
									} else {
										var4 = 0.07005736
									}
								}
							} else {
								if input[964] < 1.0 {
									if input[156] < 1.0 {
										if input[267] < 1.0 {
											var4 = -0.07410807
										} else {
											var4 = -0.025711818
										}
									} else {
										var4 = -0.02202422
									}
								} else {
									var4 = -0.008517102
								}
							}
						} else {
							if input[979] < 1.0 {
								if input[99] < 1.0 {
									if input[209] < 1.0 {
										if input[267] < 1.0 {
											var4 = -0.07466876
										} else {
											var4 = -0.018852435
										}
									} else {
										var4 = 0.0
									}
								} else {
									var4 = 0.010226878
								}
							} else {
								if input[300] < 1.0 {
									var4 = 0.00923653
								} else {
									var4 = 0.04921187
								}
							}
						}
					} else {
						if input[979] < 1.0 {
							if input[99] < 1.0 {
								if input[780] < 1.0 {
									if input[799] < 1.0 {
										if input[55] < 1.0 {
											if input[709] < 1.0 {
												if input[407] < 1.0 {
													var4 = -0.056762237
												} else {
													var4 = 0.028296009
												}
											} else {
												if input[300] < 1.0 {
													var4 = 0.022830268
												} else {
													var4 = 0.06685924
												}
											}
										} else {
											if input[608] < 1.0 {
												if input[964] < 1.0 {
													var4 = 0.07084436
												} else {
													var4 = -0.0024272099
												}
											} else {
												var4 = -0.012795773
											}
										}
									} else {
										if input[128] < 1.0 {
											if input[284] < 1.0 {
												if input[1019] < 1.0 {
													var4 = 0.079915605
												} else {
													var4 = 0.017604912
												}
											} else {
												var4 = 0.011552567
											}
										} else {
											var4 = 0.014730356
										}
									}
								} else {
									if input[65] < 1.0 {
										if input[670] < 1.0 {
											if input[77] < 1.0 {
												if input[117] < 1.0 {
													var4 = 0.080815345
												} else {
													var4 = 0.032833442
												}
											} else {
												var4 = 0.025335789
											}
										} else {
											if input[8] < 1.0 {
												var4 = 0.0041772285
											} else {
												var4 = 0.055942625
											}
										}
									} else {
										var4 = -0.025926018
									}
								}
							} else {
								if input[141] < 1.0 {
									if input[608] < 1.0 {
										if input[300] < 2.0 {
											if input[976] < 1.0 {
												var4 = 0.07923915
											} else {
												if input[128] < 1.0 {
													var4 = 0.012932827
												} else {
													var4 = 0.04929089
												}
											}
										} else {
											var4 = 0.022306707
										}
									} else {
										var4 = 0.0069670975
									}
								} else {
									var4 = 0.0010343491
								}
							}
						} else {
							if input[149] < 1.0 {
								if input[432] < 1.0 {
									if input[296] < 1.0 {
										if input[345] < 1.0 {
											if input[77] < 1.0 {
												if input[841] < 1.0 {
													var4 = 0.079669215
												} else {
													var4 = 0.019712793
												}
											} else {
												if input[300] < 1.0 {
													var4 = 0.0016109452
												} else {
													var4 = 0.05239528
												}
											}
										} else {
											var4 = 0.0126014715
										}
									} else {
										var4 = 0.002160544
									}
								} else {
									var4 = -0.006684338
								}
							} else {
								var4 = -0.014491587
							}
						}
					}
				} else {
					if input[979] < 1.0 {
						if input[99] < 1.0 {
							if input[780] < 1.0 {
								if input[799] < 1.0 {
									if input[55] < 1.0 {
										if input[330] < 1.0 {
											if input[709] < 1.0 {
												if input[157] < 1.0 {
													var4 = -0.055688303
												} else {
													var4 = 0.04782587
												}
											} else {
												if input[77] < 1.0 {
													var4 = 0.06370923
												} else {
													var4 = 0.008430082
												}
											}
										} else {
											if input[479] < 1.0 {
												var4 = 0.063398525
											} else {
												var4 = 0.0
											}
										}
									} else {
										if input[113] < 1.0 {
											if input[255] < 1.0 {
												if input[392] < 1.0 {
													var4 = 0.07140534
												} else {
													var4 = 0.007291287
												}
											} else {
												var4 = 0.008569469
											}
										} else {
											var4 = 0.00733906
										}
									}
								} else {
									if input[36] < 1.0 {
										if input[574] < 1.0 {
											if input[494] < 1.0 {
												if input[725] < 1.0 {
													var4 = 0.06917142
												} else {
													var4 = 0.020661471
												}
											} else {
												var4 = 0.022393432
											}
										} else {
											var4 = 0.011747705
										}
									} else {
										if input[452] < 1.0 {
											if input[670] < 1.0 {
												if input[678] < 1.0 {
													var4 = 0.0032305033
												} else {
													var4 = 0.037008546
												}
											} else {
												var4 = -0.015618865
											}
										} else {
											if input[670] < 1.0 {
												var4 = 0.062846184
											} else {
												var4 = 0.010049063
											}
										}
									}
								}
							} else {
								if input[104] < 1.0 {
									if input[300] < 2.0 {
										if input[485] < 1.0 {
											if input[655] < 1.0 {
												var4 = 0.07932391
											} else {
												var4 = 0.03585631
											}
										} else {
											var4 = 0.0
										}
									} else {
										var4 = 0.0
									}
								} else {
									if input[435] < 1.0 {
										var4 = 0.024708463
									} else {
										var4 = -0.013219619
									}
								}
							}
						} else {
							if input[158] < 1.0 {
								if input[924] < 1.0 {
									if input[65] < 1.0 {
										if input[540] < 2.0 {
											if input[653] < 1.0 {
												var4 = 0.07570643
											} else {
												var4 = 0.0154270325
											}
										} else {
											if input[800] < 1.0 {
												if input[540] < 3.0 {
													var4 = 0.059535395
												} else {
													var4 = 0.0068634315
												}
											} else {
												var4 = -0.003604979
											}
										}
									} else {
										if input[435] < 1.0 {
											var4 = -0.029851804
										} else {
											var4 = 0.029851804
										}
									}
								} else {
									var4 = -0.029851804
								}
							} else {
								var4 = -0.024006777
							}
						}
					} else {
						if input[740] < 1.0 {
							if input[912] < 1.0 {
								if input[43] < 1.0 {
									if input[355] < 1.0 {
										if input[404] < 1.0 {
											if input[255] < 1.0 {
												if input[49] < 1.0 {
													var4 = 0.071498685
												} else {
													var4 = 0.017286269
												}
											} else {
												if input[396] < 1.0 {
													var4 = 0.005833247
												} else {
													var4 = 0.052036203
												}
											}
										} else {
											var4 = -0.012028387
										}
									} else {
										if input[435] < 1.0 {
											var4 = -0.01011335
										} else {
											var4 = 0.010316996
										}
									}
								} else {
									var4 = -0.017722055
								}
							} else {
								if input[300] < 1.0 {
									if input[679] < 1.0 {
										if input[819] < 1.0 {
											if input[36] < 1.0 {
												if input[822] < 1.0 {
													var4 = -0.03620786
												} else {
													var4 = 0.012901842
												}
											} else {
												var4 = 0.024570063
											}
										} else {
											var4 = 0.03582491
										}
									} else {
										var4 = 0.050960787
									}
								} else {
									var4 = 0.06247249
								}
							}
						} else {
							var4 = -0.05355599
						}
					}
				}
			} else {
				if input[330] < 1.0 {
					if input[870] < 1.0 {
						if input[979] < 1.0 {
							if input[819] < 1.0 {
								if input[438] < 1.0 {
									if input[415] < 1.0 {
										if input[814] < 1.0 {
											if input[986] < 1.0 {
												if input[67] < 1.0 {
													var4 = -0.07236283
												} else {
													var4 = 0.011917873
												}
											} else {
												var4 = 0.0008500984
											}
										} else {
											var4 = 0.0010299155
										}
									} else {
										var4 = 0.014735018
									}
								} else {
									if input[255] < 1.0 {
										var4 = 0.02790457
									} else {
										var4 = -0.0072104596
									}
								}
							} else {
								var4 = 0.024841363
							}
						} else {
							if input[300] < 1.0 {
								var4 = 0.0062376265
							} else {
								var4 = 0.050385512
							}
						}
					} else {
						if input[670] < 1.0 {
							if input[36] < 1.0 {
								if input[789] < 1.0 {
									var4 = 0.02981607
								} else {
									var4 = 0.00053098693
								}
							} else {
								var4 = -0.017802719
							}
						} else {
							var4 = 0.052853692
						}
					}
				} else {
					if input[435] < 1.0 {
						var4 = 0.060400695
					} else {
						var4 = 0.017303709
					}
				}
			}
		} else {
			if input[288] < 1.0 {
				if input[979] < 1.0 {
					if input[435] < 1.0 {
						if input[540] < 1.0 {
							var4 = 0.043933805
						} else {
							var4 = -0.040138807
						}
					} else {
						var4 = -0.058864523
					}
				} else {
					if input[670] < 1.0 {
						var4 = 0.056462992
					} else {
						var4 = 0.0
					}
				}
			} else {
				var4 = -0.08425146
			}
		}
	} else {
		if input[812] < 1.0 {
			if input[540] < 1.0 {
				if input[14] < 1.0 {
					if input[141] < 1.0 {
						if input[300] < 1.0 {
							if input[435] < 1.0 {
								var4 = -0.084197715
							} else {
								var4 = -0.026722118
							}
						} else {
							var4 = -0.027091855
						}
					} else {
						var4 = 0.0
					}
				} else {
					var4 = 0.0
				}
			} else {
				if input[36] < 1.0 {
					var4 = 0.0
				} else {
					var4 = -0.017722055
				}
			}
		} else {
			var4 = 0.029851804
		}
	}
	var var5 float64
	if input[968] < 1.0 {
		if input[430] < 1.0 {
			if input[517] < 1.0 {
				if input[540] < 1.0 {
					if input[435] < 1.0 {
						if input[833] < 1.0 {
							if input[156] < 1.0 {
								if input[560] < 1.0 {
									if input[979] < 1.0 {
										if input[99] < 1.0 {
											if input[780] < 1.0 {
												if input[799] < 1.0 {
													var5 = -0.03852982
												} else {
													var5 = 0.07070308
												}
											} else {
												if input[77] < 1.0 {
													var5 = 0.078385994
												} else {
													var5 = 0.0065311277
												}
											}
										} else {
											if input[178] < 1.0 {
												if input[174] < 1.0 {
													var5 = 0.081553414
												} else {
													var5 = 0.010350037
												}
											} else {
												var5 = 0.00084592
											}
										}
									} else {
										if input[250] < 1.0 {
											if input[77] < 1.0 {
												if input[296] < 1.0 {
													var5 = 0.072011076
												} else {
													var5 = -0.007237525
												}
											} else {
												if input[23] < 1.0 {
													var5 = -0.020734856
												} else {
													var5 = 0.023365235
												}
											}
										} else {
											if input[617] < 1.0 {
												var5 = 0.023942973
											} else {
												var5 = -0.0513272
											}
										}
									}
								} else {
									if input[120] < 1.0 {
										if input[659] < 1.0 {
											var5 = 0.015284846
										} else {
											var5 = -0.007928534
										}
									} else {
										var5 = 0.08263333
									}
								}
							} else {
								if input[473] < 1.0 {
									if input[607] < 1.0 {
										if input[912] < 1.0 {
											if input[178] < 1.0 {
												if input[65] < 1.0 {
													var5 = 0.078854166
												} else {
													var5 = -0.014198454
												}
											} else {
												var5 = -0.024266152
											}
										} else {
											if input[979] < 1.0 {
												if input[99] < 1.0 {
													var5 = -0.039051637
												} else {
													var5 = 0.05378111
												}
											} else {
												var5 = 0.06297561
											}
										}
									} else {
										if input[1019] < 1.0 {
											if input[979] < 1.0 {
												if input[912] < 1.0 {
													var5 = 0.0034681165
												} else {
													var5 = 0.049366616
												}
											} else {
												if input[659] < 1.0 {
													var5 = 0.059750956
												} else {
													var5 = -0.00017411214
												}
											}
										} else {
											var5 = -0.056382068
										}
									}
								} else {
									if input[86] < 1.0 {
										if input[678] < 1.0 {
											var5 = -0.0050957813
										} else {
											var5 = -0.034169212
										}
									} else {
										var5 = -0.03969828
									}
								}
							}
						} else {
							if input[812] < 1.0 {
								if input[300] < 1.0 {
									var5 = 0.082535736
								} else {
									var5 = 0.011419497
								}
							} else {
								var5 = -0.026422052
							}
						}
					} else {
						if input[979] < 1.0 {
							if input[99] < 1.0 {
								if input[780] < 1.0 {
									if input[799] < 1.0 {
										if input[55] < 1.0 {
											if input[709] < 1.0 {
												if input[407] < 1.0 {
													var5 = -0.05414569
												} else {
													var5 = 0.027150115
												}
											} else {
												if input[300] < 1.0 {
													var5 = 0.022044865
												} else {
													var5 = 0.06473926
												}
											}
										} else {
											if input[608] < 1.0 {
												if input[964] < 1.0 {
													var5 = 0.06791418
												} else {
													var5 = -0.0023543076
												}
											} else {
												var5 = -0.012438069
											}
										}
									} else {
										if input[128] < 1.0 {
											if input[284] < 1.0 {
												if input[1019] < 1.0 {
													var5 = 0.076684624
												} else {
													var5 = 0.017085422
												}
											} else {
												var5 = 0.011231863
											}
										} else {
											var5 = 0.014244856
										}
									}
								} else {
									if input[65] < 1.0 {
										if input[670] < 1.0 {
											if input[77] < 1.0 {
												if input[117] < 1.0 {
													var5 = 0.077774644
												} else {
													var5 = 0.031767562
												}
											} else {
												var5 = 0.024550658
											}
										} else {
											if input[8] < 1.0 {
												var5 = 0.004016425
											} else {
												var5 = 0.05445726
											}
										}
									} else {
										var5 = -0.025119478
									}
								}
							} else {
								if input[141] < 1.0 {
									if input[608] < 1.0 {
										if input[300] < 2.0 {
											if input[976] < 1.0 {
												if input[950] < 1.0 {
													var5 = 0.07720727
												} else {
													var5 = 0.025200156
												}
											} else {
												if input[128] < 1.0 {
													var5 = 0.0125094205
												} else {
													var5 = 0.04810701
												}
											}
										} else {
											var5 = 0.021626556
										}
									} else {
										var5 = 0.0067762
									}
								} else {
									var5 = 0.0009965593
								}
							}
						} else {
							if input[149] < 1.0 {
								if input[432] < 1.0 {
									if input[296] < 1.0 {
										if input[345] < 1.0 {
											if input[948] < 1.0 {
												if input[980] < 1.0 {
													var5 = 0.07651537
												} else {
													var5 = 0.023855753
												}
											} else {
												var5 = 0.02114291
											}
										} else {
											var5 = 0.012237928
										}
									} else {
										var5 = 0.0020924385
									}
								} else {
									var5 = -0.0064819204
								}
							} else {
								var5 = -0.014083114
							}
						}
					}
				} else {
					if input[979] < 1.0 {
						if input[99] < 1.0 {
							if input[780] < 1.0 {
								if input[799] < 1.0 {
									if input[55] < 1.0 {
										if input[330] < 1.0 {
											if input[709] < 1.0 {
												if input[157] < 1.0 {
													var5 = -0.05333771
												} else {
													var5 = 0.046174433
												}
											} else {
												if input[77] < 1.0 {
													var5 = 0.061822087
												} else {
													var5 = 0.008198177
												}
											}
										} else {
											if input[479] < 1.0 {
												var5 = 0.061164875
											} else {
												var5 = 0.0
											}
										}
									} else {
										if input[113] < 1.0 {
											if input[255] < 1.0 {
												if input[392] < 1.0 {
													var5 = 0.06882426
												} else {
													var5 = 0.0070913504
												}
											} else {
												var5 = 0.008333667
											}
										} else {
											var5 = 0.0071377433
										}
									}
								} else {
									if input[36] < 1.0 {
										if input[104] < 1.0 {
											if input[725] < 1.0 {
												if input[494] < 1.0 {
													var5 = 0.07189111
												} else {
													var5 = 0.015030368
												}
											} else {
												var5 = 0.015949797
											}
										} else {
											if input[300] < 1.0 {
												var5 = -0.012400518
											} else {
												var5 = 0.054996617
											}
										}
									} else {
										if input[452] < 1.0 {
											if input[670] < 1.0 {
												if input[789] < 1.0 {
													var5 = 0.0028355177
												} else {
													var5 = 0.036433768
												}
											} else {
												var5 = -0.015101527
											}
										} else {
											if input[670] < 1.0 {
												var5 = 0.061020065
											} else {
												var5 = 0.009771186
											}
										}
									}
								}
							} else {
								if input[104] < 1.0 {
									if input[857] < 1.0 {
										if input[485] < 1.0 {
											var5 = 0.07428893
										} else {
											var5 = 0.0
										}
									} else {
										var5 = 0.0022150984
									}
								} else {
									if input[435] < 1.0 {
										var5 = 0.02394092
									} else {
										var5 = -0.012749794
									}
								}
							}
						} else {
							if input[158] < 1.0 {
								if input[924] < 1.0 {
									if input[65] < 1.0 {
										if input[540] < 2.0 {
											if input[653] < 1.0 {
												if input[340] < 1.0 {
													var5 = 0.074189045
												} else {
													var5 = 0.02386707
												}
											} else {
												var5 = 0.014977
											}
										} else {
											if input[800] < 1.0 {
												if input[540] < 3.0 {
													var5 = 0.05746169
												} else {
													var5 = 0.0066463053
												}
											} else {
												var5 = -0.0034845073
											}
										}
									} else {
										if input[435] < 1.0 {
											var5 = -0.029059216
										} else {
											var5 = 0.029059207
										}
									}
								} else {
									var5 = -0.029059216
								}
							} else {
								var5 = -0.023264755
							}
						}
					} else {
						if input[740] < 1.0 {
							if input[912] < 1.0 {
								if input[43] < 1.0 {
									if input[77] < 1.0 {
										if input[5] < 1.0 {
											if input[404] < 1.0 {
												if input[149] < 1.0 {
													var5 = 0.06677332
												} else {
													var5 = 0.0018131955
												}
											} else {
												var5 = -0.011693225
											}
										} else {
											var5 = -0.011914364
										}
									} else {
										if input[156] < 1.0 {
											if input[435] < 1.0 {
												var5 = -0.027546262
											} else {
												var5 = 0.0012276416
											}
										} else {
											var5 = 0.04958802
										}
									}
								} else {
									var5 = -0.017198687
								}
							} else {
								if input[300] < 1.0 {
									if input[679] < 1.0 {
										if input[574] < 1.0 {
											if input[819] < 1.0 {
												if input[435] < 1.0 {
													var5 = -0.035485025
												} else {
													var5 = 0.002140518
												}
											} else {
												var5 = 0.028523803
											}
										} else {
											var5 = 0.03505738
										}
									} else {
										var5 = 0.0496923
									}
								} else {
									var5 = 0.060278144
								}
							}
						} else {
							var5 = -0.052175112
						}
					}
				}
			} else {
				if input[330] < 1.0 {
					if input[870] < 1.0 {
						if input[979] < 1.0 {
							if input[819] < 1.0 {
								if input[438] < 1.0 {
									if input[415] < 1.0 {
										if input[760] < 1.0 {
											if input[814] < 1.0 {
												if input[986] < 1.0 {
													var5 = -0.06968702
												} else {
													var5 = 0.0008217647
												}
											} else {
												var5 = 0.000995583
											}
										} else {
											var5 = 0.008571133
										}
									} else {
										var5 = 0.014319152
									}
								} else {
									if input[255] < 1.0 {
										var5 = 0.027016116
									} else {
										var5 = -0.007012828
									}
								}
							} else {
								var5 = 0.023980983
							}
						} else {
							if input[300] < 1.0 {
								var5 = 0.0060405354
							} else {
								var5 = 0.04914636
							}
						}
					} else {
						if input[670] < 1.0 {
							if input[36] < 1.0 {
								if input[789] < 1.0 {
									var5 = 0.02885913
								} else {
									var5 = 0.0005150706
								}
							} else {
								var5 = -0.017277034
							}
						} else {
							var5 = 0.05148871
						}
					}
				} else {
					if input[435] < 1.0 {
						var5 = 0.058675688
					} else {
						var5 = 0.016794583
					}
				}
			}
		} else {
			if input[288] < 1.0 {
				if input[979] < 1.0 {
					if input[435] < 1.0 {
						if input[540] < 1.0 {
							var5 = 0.042608406
						} else {
							var5 = -0.03896312
						}
					} else {
						var5 = -0.057234157
					}
				} else {
					if input[670] < 1.0 {
						var5 = 0.05494647
					} else {
						var5 = 0.0
					}
				}
			} else {
				var5 = -0.08147268
			}
		}
	} else {
		if input[812] < 1.0 {
			if input[540] < 1.0 {
				if input[14] < 1.0 {
					if input[141] < 1.0 {
						if input[300] < 1.0 {
							if input[435] < 1.0 {
								var5 = -0.08141544
							} else {
								var5 = -0.0260358
							}
						} else {
							var5 = -0.026393494
						}
					} else {
						var5 = 0.0
					}
				} else {
					var5 = 0.0
				}
			} else {
				if input[36] < 1.0 {
					var5 = 0.0
				} else {
					var5 = -0.017198687
				}
			}
		} else {
			var5 = 0.029059207
		}
	}
	var var6 float64
	if input[968] < 1.0 {
		if input[430] < 1.0 {
			if input[540] < 1.0 {
				if input[517] < 1.0 {
					if input[435] < 1.0 {
						if input[833] < 1.0 {
							if input[156] < 1.0 {
								if input[560] < 1.0 {
									if input[979] < 1.0 {
										if input[99] < 1.0 {
											if input[780] < 1.0 {
												if input[55] < 1.0 {
													var6 = -0.036370993
												} else {
													var6 = 0.07244746
												}
											} else {
												if input[77] < 1.0 {
													var6 = 0.07534521
												} else {
													var6 = 0.0063528866
												}
											}
										} else {
											if input[178] < 1.0 {
												if input[174] < 1.0 {
													var6 = 0.0783964
												} else {
													var6 = 0.010065517
												}
											} else {
												var6 = 0.00082053273
											}
										}
									} else {
										if input[250] < 1.0 {
											if input[77] < 1.0 {
												if input[296] < 1.0 {
													var6 = 0.069463976
												} else {
													var6 = -0.0069677406
												}
											} else {
												if input[23] < 1.0 {
													var6 = -0.019973183
												} else {
													var6 = 0.02278415
												}
											}
										} else {
											if input[617] < 1.0 {
												var6 = 0.023344459
											} else {
												var6 = -0.049557045
											}
										}
									}
								} else {
									if input[120] < 1.0 {
										if input[659] < 1.0 {
											var6 = 0.014688389
										} else {
											var6 = -0.0077117304
										}
									} else {
										var6 = 0.08003371
									}
								}
							} else {
								if input[473] < 1.0 {
									if input[607] < 1.0 {
										if input[912] < 1.0 {
											if input[178] < 1.0 {
												if input[36] < 1.0 {
													var6 = 0.076978564
												} else {
													var6 = 0.043149855
												}
											} else {
												var6 = -0.023387102
											}
										} else {
											if input[979] < 1.0 {
												if input[99] < 1.0 {
													var6 = -0.037234403
												} else {
													var6 = 0.052427884
												}
											} else {
												var6 = 0.061237533
											}
										}
									} else {
										if input[1019] < 1.0 {
											if input[979] < 1.0 {
												if input[99] < 1.0 {
													var6 = 0.0032743793
												} else {
													var6 = 0.048334606
												}
											} else {
												if input[659] < 1.0 {
													var6 = 0.057902254
												} else {
													var6 = -0.00016936018
												}
											}
										} else {
											var6 = -0.054867513
										}
									}
								} else {
									if input[86] < 1.0 {
										if input[678] < 1.0 {
											var6 = -0.004893444
										} else {
											var6 = -0.033224043
										}
									} else {
										var6 = -0.03854228
									}
								}
							}
						} else {
							if input[812] < 1.0 {
								if input[300] < 1.0 {
									var6 = 0.07993231
								} else {
									var6 = 0.011047388
								}
							} else {
								var6 = -0.025593266
							}
						}
					} else {
						if input[979] < 1.0 {
							if input[99] < 1.0 {
								if input[780] < 1.0 {
									if input[799] < 1.0 {
										if input[55] < 1.0 {
											if input[709] < 1.0 {
												if input[224] < 1.0 {
													var6 = -0.051482994
												} else {
													var6 = 0.038407393
												}
											} else {
												if input[300] < 1.0 {
													var6 = 0.021290092
												} else {
													var6 = 0.062778
												}
											}
										} else {
											if input[608] < 1.0 {
												if input[964] < 1.0 {
													var6 = 0.06523647
												} else {
													var6 = -0.0022835915
												}
											} else {
												var6 = -0.012090913
											}
										}
									} else {
										if input[128] < 1.0 {
											if input[284] < 1.0 {
												if input[1019] < 1.0 {
													var6 = 0.0737754
												} else {
													var6 = 0.016582686
												}
											} else {
												var6 = 0.01092046
											}
										} else {
											var6 = 0.013776237
										}
									}
								} else {
									if input[65] < 1.0 {
										if input[670] < 1.0 {
											if input[77] < 1.0 {
												if input[117] < 1.0 {
													var6 = 0.07504045
												} else {
													var6 = 0.03074613
												}
											} else {
												var6 = 0.023793904
											}
										} else {
											if input[8] < 1.0 {
												var6 = 0.0038618036
											} else {
												var6 = 0.053058445
											}
										}
									} else {
										var6 = -0.024342434
									}
								}
							} else {
								if input[940] < 1.0 {
									if input[996] < 1.0 {
										if input[608] < 1.0 {
											if input[452] < 2.0 {
												if input[976] < 1.0 {
													var6 = 0.075255714
												} else {
													var6 = 0.03339171
												}
											} else {
												var6 = 0.015012616
											}
										} else {
											var6 = 0.0065906057
										}
									} else {
										var6 = 0.0014651923
									}
								} else {
									var6 = -0.019646317
								}
							}
						} else {
							if input[149] < 1.0 {
								if input[432] < 1.0 {
									if input[296] < 1.0 {
										if input[345] < 1.0 {
											if input[77] < 1.0 {
												if input[841] < 1.0 {
													var6 = 0.07433522
												} else {
													var6 = 0.01706887
												}
											} else {
												if input[300] < 1.0 {
													var6 = -0.00060493464
												} else {
													var6 = 0.04922439
												}
											}
										} else {
											var6 = 0.011885304
										}
									} else {
										var6 = 0.0020264748
									}
								} else {
									var6 = -0.006285745
								}
							} else {
								var6 = -0.013686973
							}
						}
					}
				} else {
					if input[870] < 1.0 {
						if input[979] < 1.0 {
							if input[819] < 1.0 {
								if input[986] < 1.0 {
									if input[72] < 1.0 {
										if input[694] < 1.0 {
											if input[419] < 1.0 {
												if input[42] < 1.0 {
													var6 = -0.06654299
												} else {
													var6 = -0.014402467
												}
											} else {
												var6 = 0.013538988
											}
										} else {
											var6 = 0.019452425
										}
									} else {
										var6 = 0.016204936
									}
								} else {
									var6 = 0.030531842
								}
							} else {
								var6 = 0.03253138
							}
						} else {
							var6 = 0.039630875
						}
					} else {
						if input[77] < 1.0 {
							var6 = 0.014718868
						} else {
							var6 = 0.034576774
						}
					}
				}
			} else {
				if input[979] < 1.0 {
					if input[99] < 1.0 {
						if input[799] < 1.0 {
							if input[780] < 1.0 {
								if input[55] < 1.0 {
									if input[330] < 1.0 {
										if input[986] < 1.0 {
											if input[157] < 1.0 {
												if input[819] < 1.0 {
													var6 = -0.055884745
												} else {
													var6 = -0.0025669055
												}
											} else {
												var6 = 0.04461302
											}
										} else {
											if input[36] < 1.0 {
												if input[392] < 1.0 {
													var6 = -0.022386132
												} else {
													var6 = 0.037169192
												}
											} else {
												if input[300] < 1.0 {
													var6 = 0.054790683
												} else {
													var6 = 0.016748084
												}
											}
										}
									} else {
										if input[479] < 1.0 {
											if input[104] < 1.0 {
												var6 = 0.066663705
											} else {
												var6 = 0.0044405228
											}
										} else {
											var6 = 0.0
										}
									}
								} else {
									if input[36] < 1.0 {
										if input[789] < 1.0 {
											var6 = 0.067367606
										} else {
											if input[300] < 1.0 {
												var6 = 0.0003449812
											} else {
												var6 = 0.04455544
											}
										}
									} else {
										if input[156] < 1.0 {
											if input[435] < 1.0 {
												var6 = 0.0026120364
											} else {
												var6 = 0.01264481
											}
										} else {
											var6 = 0.03418523
										}
									}
								}
							} else {
								if input[517] < 1.0 {
									if input[104] < 1.0 {
										if input[485] < 1.0 {
											if input[822] < 1.0 {
												if input[655] < 1.0 {
													var6 = 0.07408897
												} else {
													var6 = 0.03334583
												}
											} else {
												var6 = 0.01622204
											}
										} else {
											var6 = 0.0
										}
									} else {
										if input[435] < 1.0 {
											var6 = 0.023201378
										} else {
											var6 = -0.0058574867
										}
									}
								} else {
									var6 = -0.034777638
								}
							}
						} else {
							if input[104] < 1.0 {
								if input[494] < 1.0 {
									if input[937] < 1.0 {
										if input[357] < 1.0 {
											if input[537] < 1.0 {
												if input[284] < 1.0 {
													var6 = 0.06865036
												} else {
													var6 = 0.011516662
												}
											} else {
												var6 = -0.013902861
											}
										} else {
											var6 = -0.0070035006
										}
									} else {
										var6 = -0.010530491
									}
								} else {
									if input[435] < 1.0 {
										var6 = -0.02173312
									} else {
										var6 = 0.025396276
									}
								}
							} else {
								if input[300] < 1.0 {
									var6 = -0.015880628
								} else {
									var6 = 0.031050382
								}
							}
						}
					} else {
						if input[158] < 1.0 {
							if input[924] < 1.0 {
								if input[65] < 1.0 {
									if input[300] < 2.0 {
										if input[702] < 1.0 {
											if input[147] < 1.0 {
												if input[112] < 1.0 {
													var6 = 0.06734019
												} else {
													var6 = 0.011591065
												}
											} else {
												var6 = 0.0020725837
											}
										} else {
											var6 = 0.0018138854
										}
									} else {
										var6 = -0.0058792043
									}
								} else {
									if input[435] < 1.0 {
										var6 = -0.028294325
									} else {
										var6 = 0.028294325
									}
								}
							} else {
								var6 = -0.028294325
							}
						} else {
							var6 = -0.02254942
						}
					}
				} else {
					if input[740] < 1.0 {
						if input[912] < 1.0 {
							if input[43] < 1.0 {
								if input[355] < 1.0 {
									if input[796] < 1.0 {
										if input[5] < 1.0 {
											if input[404] < 1.0 {
												if input[255] < 1.0 {
													var6 = 0.066315964
												} else {
													var6 = 0.02401223
												}
											} else {
												var6 = -0.011367852
											}
										} else {
											var6 = -0.011582543
										}
									} else {
										var6 = -0.009107215
									}
								} else {
									if input[435] < 1.0 {
										var6 = -0.011165722
									} else {
										var6 = 0.008190255
									}
								}
							} else {
								var6 = -0.016692242
							}
						} else {
							if input[300] < 1.0 {
								if input[679] < 1.0 {
									if input[574] < 1.0 {
										if input[819] < 1.0 {
											if input[435] < 1.0 {
												var6 = -0.036632303
											} else {
												var6 = 0.0020640302
											}
										} else {
											var6 = 0.027777314
										}
									} else {
										var6 = 0.03407716
									}
								} else {
									var6 = 0.048488542
								}
							} else {
								var6 = 0.05823902
							}
						}
					} else {
						var6 = -0.050869968
					}
				}
			}
		} else {
			if input[288] < 1.0 {
				if input[979] < 1.0 {
					if input[435] < 1.0 {
						if input[540] < 1.0 {
							var6 = 0.04134661
						} else {
							var6 = -0.037839405
						}
					} else {
						var6 = -0.055705823
					}
				} else {
					if input[670] < 1.0 {
						var6 = 0.053519465
					} else {
						var6 = 0.0
					}
				}
			} else {
				var6 = -0.07899863
			}
		}
	} else {
		if input[812] < 1.0 {
			if input[540] < 1.0 {
				if input[14] < 1.0 {
					if input[141] < 1.0 {
						if input[300] < 1.0 {
							if input[435] < 1.0 {
								var6 = -0.07893787
							} else {
								var6 = -0.025371706
							}
						} else {
							var6 = -0.025717935
						}
					} else {
						var6 = 0.0
					}
				} else {
					var6 = 0.0
				}
			} else {
				if input[36] < 1.0 {
					var6 = 0.0
				} else {
					var6 = -0.016692242
				}
			}
		} else {
			var6 = 0.028294325
		}
	}
	var var7 float64
	if input[968] < 1.0 {
		if input[430] < 1.0 {
			if input[517] < 1.0 {
				if input[540] < 1.0 {
					if input[178] < 1.0 {
						if input[65] < 1.0 {
							if input[73] < 1.0 {
								if input[833] < 1.0 {
									if input[156] < 1.0 {
										if input[365] < 1.0 {
											if input[979] < 1.0 {
												if input[99] < 1.0 {
													var7 = -0.0067682075
												} else {
													var7 = 0.0736297
												}
											} else {
												if input[250] < 1.0 {
													var7 = 0.06460171
												} else {
													var7 = -0.012652214
												}
											}
										} else {
											if input[120] < 1.0 {
												if input[789] < 1.0 {
													var7 = 0.02568656
												} else {
													var7 = -0.016438475
												}
											} else {
												var7 = 0.07771194
											}
										}
									} else {
										if input[473] < 1.0 {
											if input[435] < 1.0 {
												if input[776] < 1.0 {
													var7 = 0.07334557
												} else {
													var7 = 0.0022156702
												}
											} else {
												if input[979] < 1.0 {
													var7 = 0.022765128
												} else {
													var7 = 0.069204226
												}
											}
										} else {
											if input[529] < 1.0 {
												if input[678] < 1.0 {
													var7 = -0.01368202
												} else {
													var7 = -0.05231455
												}
											} else {
												var7 = 0.006523079
											}
										}
									}
								} else {
									if input[300] < 1.0 {
										var7 = 0.07736538
									} else {
										if input[36] < 1.0 {
											if input[435] < 1.0 {
												var7 = 0.0012401658
											} else {
												var7 = 0.016033243
											}
										} else {
											var7 = -0.008580764
										}
									}
								}
							} else {
								if input[979] < 1.0 {
									if input[267] < 1.0 {
										if input[776] < 1.0 {
											if input[780] < 1.0 {
												if input[655] < 1.0 {
													var7 = -0.07150892
												} else {
													var7 = -0.022234324
												}
											} else {
												var7 = -0.013768953
											}
										} else {
											var7 = 0.00025207587
										}
									} else {
										var7 = -0.0030341032
									}
								} else {
									var7 = 0.04808366
								}
							}
						} else {
							if input[979] < 1.0 {
								if input[14] < 1.0 {
									if input[799] < 1.0 {
										if input[93] < 1.0 {
											if input[55] < 1.0 {
												if input[20] < 1.0 {
													var7 = -0.07151833
												} else {
													var7 = -0.007186135
												}
											} else {
												var7 = 0.010594346
											}
										} else {
											var7 = 0.029124985
										}
									} else {
										var7 = 0.029975424
									}
								} else {
									if input[452] < 1.0 {
										var7 = 0.05036201
									} else {
										var7 = 0.012279838
									}
								}
							} else {
								var7 = 0.06969338
							}
						}
					} else {
						if input[979] < 1.0 {
							if input[306] < 1.0 {
								if input[267] < 1.0 {
									if input[543] < 1.0 {
										if input[113] < 1.0 {
											var7 = -0.07150844
										} else {
											var7 = -0.02266643
										}
									} else {
										var7 = -0.02081335
									}
								} else {
									if input[300] < 1.0 {
										var7 = 0.0074405083
									} else {
										var7 = -0.0515449
									}
								}
							} else {
								var7 = 0.003158761
							}
						} else {
							if input[300] < 1.0 {
								var7 = 0.0137772085
							} else {
								var7 = 0.05467826
							}
						}
					}
				} else {
					if input[979] < 1.0 {
						if input[99] < 1.0 {
							if input[780] < 1.0 {
								if input[799] < 1.0 {
									if input[55] < 1.0 {
										if input[330] < 1.0 {
											if input[709] < 1.0 {
												if input[345] < 1.0 {
													var7 = -0.049318288
												} else {
													var7 = 0.030645013
												}
											} else {
												if input[77] < 1.0 {
													var7 = 0.061493035
												} else {
													var7 = 0.00951212
												}
											}
										} else {
											if input[479] < 1.0 {
												var7 = 0.05725351
											} else {
												var7 = 0.0
											}
										}
									} else {
										if input[113] < 1.0 {
											if input[255] < 1.0 {
												if input[392] < 1.0 {
													var7 = 0.0648203
												} else {
													var7 = 0.0053589446
												}
											} else {
												var7 = 0.00750927
											}
										} else {
											var7 = 0.0061235963
										}
									}
								} else {
									if input[36] < 1.0 {
										if input[574] < 1.0 {
											if input[494] < 1.0 {
												if input[725] < 1.0 {
													var7 = 0.062683634
												} else {
													var7 = 0.01783259
												}
											} else {
												var7 = 0.020911971
											}
										} else {
											var7 = 0.008925217
										}
									} else {
										if input[452] < 1.0 {
											if input[128] < 1.0 {
												if input[812] < 1.0 {
													var7 = -0.015331628
												} else {
													var7 = 0.027904242
												}
											} else {
												var7 = 0.030718287
											}
										} else {
											if input[670] < 1.0 {
												var7 = 0.0579031
											} else {
												var7 = 0.008446689
											}
										}
									}
								}
							} else {
								if input[104] < 1.0 {
									if input[857] < 1.0 {
										if input[485] < 1.0 {
											if input[333] < 1.0 {
												if input[655] < 1.0 {
													var7 = 0.07449406
												} else {
													var7 = 0.0318937
												}
											} else {
												var7 = 0.022838369
											}
										} else {
											var7 = 0.0
										}
									} else {
										var7 = 0.00050052255
									}
								} else {
									if input[435] < 1.0 {
										var7 = 0.022488395
									} else {
										var7 = -0.012054386
									}
								}
							}
						} else {
							if input[158] < 1.0 {
								if input[924] < 1.0 {
									if input[65] < 1.0 {
										if input[540] < 2.0 {
											if input[653] < 1.0 {
												if input[527] < 1.0 {
													var7 = 0.0698655
												} else {
													var7 = 0.021038814
												}
											} else {
												var7 = 0.012913451
											}
										} else {
											if input[800] < 1.0 {
												if input[540] < 3.0 {
													var7 = 0.053591985
												} else {
													var7 = 0.00490212
												}
											} else {
												var7 = -0.005314944
											}
										}
									} else {
										if input[435] < 1.0 {
											var7 = -0.02755565
										} else {
											var7 = 0.02755565
										}
									}
								} else {
									var7 = -0.02755565
								}
							} else {
								var7 = -0.021859437
							}
						}
					} else {
						if input[740] < 1.0 {
							if input[178] < 1.0 {
								if input[5] < 1.0 {
									if input[43] < 1.0 {
										if input[248] < 1.0 {
											if input[77] < 1.0 {
												if input[404] < 1.0 {
													var7 = 0.05914681
												} else {
													var7 = -0.011051953
												}
											} else {
												if input[452] < 1.0 {
													var7 = 0.027758557
												} else {
													var7 = -0.019526867
												}
											}
										} else {
											var7 = -0.013667806
										}
									} else {
										var7 = -0.016202025
									}
								} else {
									var7 = -0.019139145
								}
							} else {
								if input[912] < 1.0 {
									var7 = 0.007954434
								} else {
									var7 = -0.028871609
								}
							}
						} else {
							var7 = -0.049633943
						}
					}
				}
			} else {
				if input[330] < 1.0 {
					if input[870] < 1.0 {
						if input[979] < 1.0 {
							if input[819] < 1.0 {
								if input[438] < 1.0 {
									if input[714] < 1.0 {
										if input[67] < 1.0 {
											if input[814] < 1.0 {
												if input[760] < 1.0 {
													var7 = -0.065120175
												} else {
													var7 = 0.010017409
												}
											} else {
												var7 = 0.0031382057
											}
										} else {
											var7 = 0.014573804
										}
									} else {
										var7 = 0.014049279
									}
								} else {
									if input[255] < 1.0 {
										var7 = 0.027006064
									} else {
										var7 = -0.005963787
									}
								}
							} else {
								var7 = 0.022167359
							}
						} else {
							if input[300] < 1.0 {
								var7 = 0.0048291623
							} else {
								var7 = 0.047042836
							}
						}
					} else {
						if input[670] < 1.0 {
							if input[36] < 1.0 {
								if input[789] < 1.0 {
									var7 = 0.027322128
								} else {
									var7 = 0.00066276296
								}
							} else {
								var7 = -0.016629098
							}
						} else {
							var7 = 0.05042366
						}
					}
				} else {
					if input[435] < 1.0 {
						var7 = 0.056265455
					} else {
						var7 = 0.015647776
					}
				}
			}
		} else {
			if input[288] < 1.0 {
				if input[979] < 1.0 {
					if input[435] < 1.0 {
						if input[540] < 1.0 {
							var7 = 0.040143237
						} else {
							var7 = -0.036763847
						}
					} else {
						var7 = -0.054269325
					}
				} else {
					if input[670] < 1.0 {
						var7 = 0.052173533
					} else {
						var7 = 0.0
					}
				}
			} else {
				var7 = -0.0767841
			}
		}
	} else {
		if input[812] < 1.0 {
			if input[540] < 1.0 {
				if input[14] < 1.0 {
					if input[141] < 1.0 {
						if input[300] < 1.0 {
							if input[435] < 1.0 {
								var7 = -0.07671972
							} else {
								var7 = -0.024728749
							}
						} else {
							var7 = -0.025064075
						}
					} else {
						var7 = 0.0
					}
				} else {
					var7 = 0.0
				}
			} else {
				if input[36] < 1.0 {
					var7 = 0.0
				} else {
					var7 = -0.016202025
				}
			}
		} else {
			var7 = 0.02755565
		}
	}
	var var8 float64
	if input[968] < 1.0 {
		if input[430] < 1.0 {
			if input[540] < 1.0 {
				if input[517] < 1.0 {
					if input[833] < 1.0 {
						if input[156] < 1.0 {
							if input[365] < 1.0 {
								if input[979] < 1.0 {
									if input[99] < 1.0 {
										if input[780] < 1.0 {
											if input[799] < 1.0 {
												if input[55] < 1.0 {
													var8 = -0.045769572
												} else {
													var8 = 0.066000156
												}
											} else {
												if input[178] < 1.0 {
													var8 = 0.069777004
												} else {
													var8 = -0.027057204
												}
											}
										} else {
											if input[65] < 1.0 {
												if input[630] < 1.0 {
													var8 = 0.07064251
												} else {
													var8 = -0.008282634
												}
											} else {
												var8 = -0.034561776
											}
										}
									} else {
										if input[178] < 1.0 {
											if input[944] < 1.0 {
												if input[357] < 1.0 {
													var8 = 0.07277931
												} else {
													var8 = 0.013560225
												}
											} else {
												var8 = -0.03036224
											}
										} else {
											var8 = -0.027112348
										}
									}
								} else {
									if input[296] < 1.0 {
										if input[77] < 1.0 {
											if input[250] < 1.0 {
												if input[766] < 1.0 {
													var8 = 0.06558948
												} else {
													var8 = -0.027138341
												}
											} else {
												if input[617] < 1.0 {
													var8 = 0.028400838
												} else {
													var8 = -0.047465637
												}
											}
										} else {
											if input[300] < 1.0 {
												if input[23] < 1.0 {
													var8 = -0.042985853
												} else {
													var8 = 0.020636704
												}
											} else {
												var8 = 0.039095383
											}
										}
									} else {
										if input[104] < 1.0 {
											var8 = 0.038983073
										} else {
											var8 = -0.04270206
										}
									}
								}
							} else {
								if input[120] < 1.0 {
									if input[979] < 1.0 {
										if input[789] < 1.0 {
											if input[435] < 1.0 {
												var8 = -0.0150116235
											} else {
												var8 = 0.004104078
											}
										} else {
											var8 = -0.03310861
										}
									} else {
										var8 = 0.042051468
									}
								} else {
									var8 = 0.07562794
								}
							}
						} else {
							if input[435] < 1.0 {
								if input[473] < 1.0 {
									if input[607] < 1.0 {
										if input[912] < 1.0 {
											if input[36] < 1.0 {
												if input[69] < 1.0 {
													var8 = 0.07253904
												} else {
													var8 = -0.0573406
												}
											} else {
												if input[64] < 1.0 {
													var8 = 0.041902468
												} else {
													var8 = -0.035162624
												}
											}
										} else {
											if input[979] < 1.0 {
												if input[99] < 1.0 {
													var8 = -0.038065188
												} else {
													var8 = 0.049711645
												}
											} else {
												var8 = 0.057772268
											}
										}
									} else {
										if input[1019] < 1.0 {
											if input[964] < 1.0 {
												if input[979] < 1.0 {
													var8 = 0.013671129
												} else {
													var8 = 0.04928695
												}
											} else {
												var8 = -0.021726958
											}
										} else {
											var8 = -0.054423213
										}
									}
								} else {
									if input[86] < 1.0 {
										if input[678] < 1.0 {
											var8 = -0.0043064402
										} else {
											var8 = -0.031169472
										}
									} else {
										var8 = -0.037048213
									}
								}
							} else {
								if input[979] < 1.0 {
									if input[780] < 1.0 {
										if input[99] < 1.0 {
											if input[55] < 1.0 {
												if input[799] < 1.0 {
													var8 = -0.027886827
												} else {
													var8 = 0.05124935
												}
											} else {
												if input[300] < 1.0 {
													var8 = 0.013398814
												} else {
													var8 = 0.06234047
												}
											}
										} else {
											var8 = 0.0637965
										}
									} else {
										var8 = 0.07151773
									}
								} else {
									if input[392] < 1.0 {
										if input[721] < 1.0 {
											if input[488] < 1.0 {
												var8 = 0.07466646
											} else {
												var8 = 0.02369991
											}
										} else {
											var8 = 0.017797472
										}
									} else {
										var8 = 0.023298655
									}
								}
							}
						}
					} else {
						if input[452] < 1.0 {
							if input[36] < 1.0 {
								if input[435] < 1.0 {
									if input[300] < 1.0 {
										var8 = 0.07552864
									} else {
										var8 = 0.012278376
									}
								} else {
									var8 = 0.017108195
								}
							} else {
								var8 = -0.022570783
							}
						} else {
							var8 = -0.028840223
						}
					}
				} else {
					if input[870] < 1.0 {
						if input[979] < 1.0 {
							if input[819] < 1.0 {
								if input[986] < 1.0 {
									if input[72] < 1.0 {
										if input[694] < 1.0 {
											if input[419] < 1.0 {
												if input[42] < 1.0 {
													var8 = -0.062269535
												} else {
													var8 = -0.011987926
												}
											} else {
												var8 = 0.0138343815
											}
										} else {
											var8 = 0.020330844
										}
									} else {
										var8 = 0.017399803
									}
								} else {
									var8 = 0.030449787
								}
							} else {
								var8 = 0.030765438
							}
						} else {
							if input[300] < 1.0 {
								var8 = 0.014956149
							} else {
								var8 = 0.045967508
							}
						}
					} else {
						if input[77] < 1.0 {
							var8 = 0.013696687
						} else {
							var8 = 0.03302474
						}
					}
				}
			} else {
				if input[979] < 1.0 {
					if input[99] < 1.0 {
						if input[799] < 1.0 {
							if input[780] < 1.0 {
								if input[55] < 1.0 {
									if input[330] < 1.0 {
										if input[986] < 1.0 {
											if input[157] < 1.0 {
												if input[819] < 1.0 {
													var8 = -0.051855218
												} else {
													var8 = -0.0002986528
												}
											} else {
												var8 = 0.044770714
											}
										} else {
											if input[36] < 1.0 {
												if input[392] < 1.0 {
													var8 = -0.019735392
												} else {
													var8 = 0.0371254
												}
											} else {
												var8 = 0.04796884
											}
										}
									} else {
										if input[607] < 1.0 {
											if input[104] < 1.0 {
												var8 = 0.06438601
											} else {
												var8 = 0.0029909115
											}
										} else {
											var8 = 0.000569858
										}
									}
								} else {
									if input[36] < 1.0 {
										if input[789] < 1.0 {
											var8 = 0.06352359
										} else {
											if input[300] < 1.0 {
												var8 = -0.001098117
											} else {
												var8 = 0.04222953
											}
										}
									} else {
										if input[156] < 1.0 {
											if input[435] < 1.0 {
												var8 = 0.0015460717
											} else {
												var8 = 0.011012614
											}
										} else {
											var8 = 0.03246466
										}
									}
								}
							} else {
								if input[517] < 1.0 {
									if input[104] < 1.0 {
										if input[485] < 1.0 {
											if input[822] < 1.0 {
												if input[655] < 1.0 {
													var8 = 0.069932364
												} else {
													var8 = 0.031294003
												}
											} else {
												var8 = 0.014558268
											}
										} else {
											var8 = 0.0
										}
									} else {
										if input[670] < 1.0 {
											if input[435] < 1.0 {
												var8 = 0.03473517
											} else {
												var8 = -0.009147005
											}
										} else {
											var8 = -0.010321512
										}
									}
								} else {
									var8 = -0.03238688
								}
							}
						} else {
							if input[104] < 1.0 {
								if input[494] < 1.0 {
									if input[357] < 1.0 {
										if input[537] < 1.0 {
											if input[937] < 1.0 {
												if input[284] < 1.0 {
													var8 = 0.06482827
												} else {
													var8 = 0.009709627
												}
											} else {
												var8 = -0.009725145
											}
										} else {
											var8 = -0.013708398
										}
									} else {
										var8 = -0.007730859
									}
								} else {
									if input[435] < 1.0 {
										var8 = -0.021171434
									} else {
